digraph Tree {
node [shape=box, fontname="helvetica"] ;
edge [fontname="helvetica"] ;
0 [label="X[3] <= 0.8\ngini = 0.665\nsamples = 110\nvalue = [34, 36, 40]"] ;
1 [label="gini = 0.0\nsamples = 34\nvalue = [34, 0, 0]"] ;
0 -> 1 [labeldistance=2.5, labelangle=45, headlabel="True"] ;
2 [label="X[3] <= 1.75\ngini = 0.499\nsamples = 76\nvalue = [0, 36, 40]"] ;
0 -> 2 [labeldistance=2.5, labelangle=-45, headlabel="False"] ;
3 [label="X[2] <= 4.95\ngini = 0.184\nsamples = 39\nvalue = [0, 35, 4]"] ;
2 -> 3 ;
4 [label="gini = 0.057\nsamples = 34\nvalue = [0, 33, 1]"] ;
3 -> 4 ;
5 [label="gini = 0.48\nsamples = 5\nvalue = [0, 2, 3]"] ;
3 -> 5 ;
6 [label="X[2] <= 4.85\ngini = 0.053\nsamples = 37\nvalue = [0, 1, 36]"] ;
2 -> 6 ;
7 [label="gini = 0.444\nsamples = 3\nvalue = [0, 1, 2]"] ;
6 -> 7 ;
8 [label="gini = 0.0\nsamples = 34\nvalue = [0, 0, 34]"] ;
6 -> 8 ;
}